%YAML:1.0
---
opencv_ml_svm:
   format: 3
   svmType: C_SVC
   kernel:
      type: LINEAR
   C: 1.
   term_criteria: { epsilon:1.1920928955078125e-07, iterations:1000 }
   var_count: 50
   class_count: 3
   class_labels: !!opencv-matrix
      rows: 3
      cols: 1
      dt: i
      data: [ 0, 1, 2 ]
   sv_total: 3
   support_vectors:
      - [ 3.85584030e-03, -6.43412524e-04, -8.03343114e-03,
          -3.60267260e-03, 1.29572477e-03, 1.01455394e-02,
          3.59665859e-03, -8.82422086e-04, 7.17418781e-03,
          -5.74898534e-03, 2.85133312e-04, 1.17589533e-03,
          -9.82134789e-03, 3.72289843e-03, -9.31062084e-03,
          -3.24946246e-03, 1.86296616e-04, 4.38742992e-03,
          4.03578766e-03, 4.41706274e-03, -3.75535921e-03,
          2.19367095e-03, 4.05825675e-03, -6.47606235e-03,
          -3.03648785e-03, 3.28470627e-03, 3.46813886e-03,
          6.73959125e-03, -6.26054313e-03, -2.17018113e-03,
          5.58221526e-03, 9.95510258e-04, 3.71915405e-03, 1.93843385e-03,
          -2.94983061e-03, 3.13591911e-03, -7.80776097e-03,
          2.10621255e-03, -9.92806908e-03, -1.84053800e-03,
          -1.03179654e-02, 8.78161751e-04, 4.93453932e-04,
          3.78369405e-05, 2.66127335e-03, 2.75441067e-04,
          -4.13198635e-04, 7.41720153e-03, -3.68976709e-03,
          1.82168023e-03 ]
      - [ 4.42798249e-03, -8.14581872e-04, -4.43807803e-03,
          -3.51977441e-03, -3.57012544e-03, -1.44349178e-03,
          5.00387978e-03, -6.82844315e-03, 5.62663097e-03,
          8.41451623e-03, 5.44866687e-03, 1.82254508e-03, 4.65448387e-03,
          -9.00492352e-03, -5.19219507e-03, 2.12360988e-03,
          2.09202315e-03, -3.45399108e-04, 1.27004795e-02,
          -1.37584994e-03, -1.81858044e-03, 1.83962588e-03,
          1.92696555e-03, -1.48698827e-02, -2.05375114e-03,
          1.86656858e-03, 2.70809978e-03, -4.24574176e-03,
          -7.15683447e-03, 4.50757379e-03, -2.76431274e-05,
          2.41387542e-03, 4.00281698e-03, 5.76987490e-03, 3.21592623e-03,
          2.50244373e-03, 1.29931595e-03, 4.90095420e-03,
          -8.84178386e-04, -3.81873176e-03, -2.79119588e-03,
          -4.13235510e-03, -2.58400990e-03, 3.03346175e-03,
          2.67173094e-03, 1.43156387e-03, -2.67331791e-03,
          1.23544717e-02, -2.57336185e-03, 1.49819592e-03 ]
      - [ -5.50615694e-03, 4.86303587e-03, 2.95122946e-03,
          8.28919467e-03, -1.01985121e-02, 1.86963601e-03,
          8.58494360e-03, 2.05885875e-03, -6.11528242e-03,
          2.15552212e-03, 9.55134258e-03, 9.83006135e-03,
          -6.21759100e-03, 1.23867695e-03, -2.77709868e-03,
          -7.84609094e-03, -4.09889966e-03, -1.75151555e-03,
          1.59319118e-02, 2.95083737e-03, -3.67538235e-03,
          -6.85813325e-03, -1.73866167e-03, -4.57698805e-03,
          -1.04954699e-03, 5.14749298e-03, 4.94508713e-04,
          -6.03962922e-03, 3.71206133e-03, -4.35878662e-03,
          -1.40466064e-03, 6.94740377e-03, 8.47053621e-03,
          2.65683484e-04, -4.49547917e-03, 2.01424677e-03,
          7.76957208e-03, 3.25603504e-03, 9.73688089e-04,
          -4.48606256e-03, 7.80999471e-05, -2.43458408e-03,
          -5.63341333e-03, 1.14618866e-02, 7.56582385e-03,
          -1.33970724e-02, -3.30704777e-03, -9.66701750e-03,
          8.67574569e-03, -9.74007137e-03 ]
   uncompressed_sv_total: 203
   uncompressed_support_vectors:
      - [ 5., 0., 2., 4., 0., 2., 0., 2., 1., 1., 1., 5., 6., 1., 4., 5.,
          0., 5., 4., 1., 9., 1., 2., 1., 6., 6., 10., 10., 0., 2., 10.,
          1., 1., 2., 4., 2., 0., 2., 0., 2., 4., 12., 2., 2., 2., 1.,
          1., 8., 8., 11. ]
      - [ 13., 5., 7., 4., 9., 11., 18., 8., 5., 9., 2., 6., 7., 5., 4.,
          5., 10., 8., 4., 9., 4., 4., 4., 13., 9., 8., 1., 6., 4., 4.,
          6., 5., 5., 6., 2., 9., 5., 9., 4., 6., 7., 4., 2., 4., 6., 6.,
          10., 5., 9., 3. ]
      - [ 3., 18., 3., 15., 5., 1., 3., 11., 3., 5., 9., 1., 2., 4., 4.,
          3., 5., 7., 5., 0., 13., 4., 6., 6., 14., 5., 1., 2., 8., 10.,
          4., 5., 15., 2., 2., 4., 7., 7., 10., 4., 6., 11., 3., 3., 5.,
          7., 6., 11., 8., 8. ]
      - [ 39., 37., 29., 25., 26., 46., 39., 47., 35., 37., 24., 33.,
          57., 26., 34., 48., 28., 55., 51., 38., 122., 39., 49., 62.,
          21., 38., 76., 40., 31., 39., 49., 30., 26., 62., 65., 31.,
          26., 31., 29., 59., 54., 139., 7., 41., 52., 23., 35., 65.,
          62., 49. ]
      - [ 9., 23., 5., 4., 8., 7., 7., 6., 7., 6., 4., 8., 13., 4., 6.,
          8., 6., 22., 9., 5., 8., 2., 10., 7., 8., 7., 2., 7., 6., 6.,
          8., 9., 7., 3., 7., 3., 30., 5., 22., 12., 6., 5., 6., 7., 9.,
          5., 4., 19., 13., 6. ]
      - [ 26., 31., 7., 4., 22., 4., 19., 12., 10., 7., 8., 6., 14., 9.,
          12., 11., 12., 14., 11., 7., 10., 7., 15., 11., 3., 11., 15.,
          11., 9., 10., 7., 9., 6., 6., 9., 6., 42., 21., 27., 12., 10.,
          11., 11., 11., 5., 13., 8., 16., 13., 9. ]
      - [ 109., 43., 17., 75., 36., 52., 40., 28., 38., 39., 29., 18.,
          29., 34., 30., 31., 32., 11., 7., 23., 36., 45., 23., 33., 30.,
          19., 25., 23., 40., 12., 4., 22., 19., 49., 15., 20., 31., 16.,
          13., 17., 18., 26., 30., 13., 57., 28., 21., 27., 30., 33. ]
      - [ 45., 59., 36., 35., 20., 47., 18., 28., 53., 26., 42., 28.,
          68., 41., 65., 51., 15., 74., 55., 19., 81., 62., 47., 40.,
          35., 25., 152., 65., 44., 26., 22., 44., 51., 55., 111., 24.,
          30., 42., 24., 78., 53., 39., 22., 26., 35., 28., 32., 60.,
          67., 32. ]
      - [ 61., 17., 31., 39., 58., 53., 56., 23., 27., 20., 19., 40.,
          50., 57., 18., 38., 28., 15., 38., 70., 55., 46., 46., 37.,
          47., 36., 17., 28., 32., 52., 51., 37., 43., 45., 17., 48.,
          20., 29., 26., 34., 31., 28., 29., 29., 27., 54., 35., 34.,
          40., 29. ]
      - [ 5., 42., 5., 22., 6., 3., 6., 17., 5., 9., 23., 8., 8., 4.,
          12., 15., 5., 13., 18., 42., 20., 13., 20., 11., 38., 6., 9.,
          19., 2., 50., 18., 6., 19., 5., 15., 12., 14., 13., 45., 9.,
          10., 15., 6., 9., 4., 4., 11., 5., 3., 22. ]
      - [ 4., 4., 3., 2., 3., 1., 4., 2., 4., 3., 4., 1., 0., 1., 2., 4.,
          2., 3., 2., 1., 2., 6., 2., 6., 0., 1., 5., 5., 4., 1., 0., 1.,
          4., 4., 0., 1., 5., 3., 0., 2., 1., 4., 2., 4., 1., 2., 1., 1.,
          3., 3. ]
      - [ 20., 47., 10., 17., 12., 11., 13., 27., 10., 11., 16., 13.,
          25., 18., 15., 19., 18., 17., 19., 22., 47., 9., 21., 19., 23.,
          28., 11., 44., 11., 42., 5., 12., 19., 20., 17., 26., 9., 24.,
          67., 22., 13., 17., 16., 10., 12., 19., 26., 37., 18., 18. ]
      - [ 12., 33., 9., 8., 4., 3., 9., 5., 4., 8., 5., 2., 3., 8., 2.,
          5., 4., 9., 6., 9., 11., 3., 7., 7., 16., 8., 2., 9., 7., 16.,
          11., 4., 9., 3., 5., 9., 1., 8., 21., 14., 8., 6., 8., 6., 6.,
          6., 7., 20., 1., 6. ]
      - [ 25., 35., 7., 18., 6., 34., 18., 0., 6., 15., 20., 6., 5., 12.,
          9., 35., 14., 4., 1., 6., 10., 17., 3., 11., 53., 2., 5., 3.,
          16., 8., 0., 5., 15., 3., 0., 30., 8., 9., 6., 8., 10., 14.,
          35., 10., 25., 15., 9., 11., 15., 4. ]
      - [ 31., 20., 23., 23., 34., 16., 124., 69., 7., 9., 2., 62., 24.,
          8., 17., 21., 105., 13., 35., 62., 75., 16., 38., 73., 41., 6.,
          27., 23., 6., 26., 35., 4., 20., 12., 19., 32., 11., 25., 7.,
          26., 26., 91., 2., 25., 62., 6., 26., 28., 16., 32. ]
      - [ 24., 3., 7., 16., 15., 5., 14., 11., 3., 5., 7., 24., 15., 9.,
          2., 9., 2., 25., 4., 9., 6., 5., 6., 20., 2., 4., 11., 8., 5.,
          3., 0., 8., 10., 24., 4., 0., 10., 14., 6., 12., 10., 12., 5.,
          2., 5., 5., 16., 16., 14., 7. ]
      - [ 32., 11., 26., 13., 18., 23., 19., 38., 15., 10., 20., 21.,
          30., 26., 19., 28., 19., 22., 28., 16., 44., 18., 27., 34.,
          23., 14., 29., 30., 9., 29., 51., 9., 11., 31., 29., 21., 14.,
          17., 10., 47., 39., 29., 7., 13., 33., 27., 18., 29., 35., 50. ]
      - [ 30., 31., 19., 32., 70., 30., 23., 73., 19., 39., 10., 79.,
          18., 21., 10., 20., 25., 81., 66., 23., 18., 20., 21., 61., 6.,
          54., 21., 28., 5., 39., 14., 26., 17., 49., 46., 14., 30., 22.,
          44., 17., 18., 30., 5., 59., 19., 66., 38., 14., 16., 43. ]
      - [ 134., 129., 67., 85., 106., 111., 119., 110., 50., 56., 100.,
          81., 91., 107., 58., 57., 58., 60., 100., 128., 125., 103.,
          124., 72., 220., 99., 42., 68., 57., 207., 122., 65., 87., 95.,
          68., 70., 82., 82., 142., 79., 90., 104., 72., 86., 45., 98.,
          65., 79., 102., 63. ]
      - [ 21., 43., 24., 55., 59., 33., 33., 46., 42., 28., 446., 45.,
          28., 75., 63., 27., 35., 53., 27., 69., 8., 36., 43., 43., 67.,
          16., 27., 27., 39., 27., 16., 38., 51., 26., 29., 37., 24.,
          56., 29., 37., 79., 7., 479., 17., 42., 53., 29., 31., 33., 8. ]
      - [ 38., 8., 17., 38., 20., 6., 12., 12., 11., 8., 21., 22., 6.,
          10., 19., 21., 30., 7., 12., 18., 8., 9., 11., 25., 8., 9.,
          21., 15., 11., 17., 0., 22., 23., 5., 4., 4., 16., 34., 11.,
          17., 3., 31., 8., 1., 7., 11., 18., 13., 20., 9. ]
      - [ 13., 71., 7., 18., 33., 11., 25., 22., 25., 14., 11., 24., 16.,
          7., 15., 13., 20., 33., 15., 18., 15., 9., 14., 9., 31., 4.,
          18., 12., 24., 12., 10., 16., 18., 10., 7., 17., 6., 16., 35.,
          17., 26., 6., 11., 5., 11., 21., 8., 18., 20., 26. ]
      - [ 4., 2., 3., 6., 1., 6., 2., 21., 1., 6., 0., 5., 2., 1., 4.,
          2., 0., 4., 5., 2., 1., 3., 1., 0., 4., 5., 3., 4., 3., 0., 8.,
          4., 5., 5., 2., 16., 6., 7., 1., 1., 4., 1., 0., 2., 4., 4.,
          7., 4., 4., 6. ]
      - [ 44., 16., 12., 53., 16., 10., 5., 19., 4., 18., 14., 21., 14.,
          16., 12., 22., 9., 26., 8., 11., 17., 7., 4., 21., 3., 9., 15.,
          16., 6., 9., 0., 12., 22., 17., 8., 2., 30., 11., 10., 18.,
          14., 18., 20., 16., 11., 14., 18., 12., 13., 18. ]
      - [ 4., 6., 3., 13., 4., 5., 1., 12., 3., 10., 1., 10., 6., 5., 2.,
          13., 4., 4., 12., 5., 5., 6., 5., 8., 5., 3., 3., 7., 3., 3.,
          21., 4., 8., 9., 5., 18., 8., 14., 8., 12., 5., 1., 0., 10.,
          12., 3., 11., 7., 4., 26. ]
      - [ 5., 0., 2., 7., 2., 3., 9., 4., 3., 2., 1., 2., 3., 7., 1., 3.,
          3., 2., 2., 7., 1., 3., 1., 3., 10., 2., 1., 6., 1., 2., 10.,
          2., 4., 2., 1., 9., 1., 3., 2., 4., 2., 5., 0., 6., 2., 3.,
          10., 3., 0., 5. ]
      - [ 12., 16., 2., 20., 9., 30., 5., 20., 42., 11., 18., 56., 10.,
          12., 9., 28., 11., 21., 11., 0., 42., 12., 5., 17., 20., 28.,
          9., 34., 42., 77., 3., 29., 30., 15., 14., 20., 16., 3., 16.,
          5., 6., 17., 14., 7., 28., 12., 11., 3., 4., 21. ]
      - [ 25., 25., 49., 27., 30., 22., 37., 37., 21., 23., 12., 28.,
          26., 20., 18., 21., 24., 19., 15., 43., 24., 26., 35., 44.,
          20., 23., 23., 23., 16., 31., 46., 23., 36., 25., 5., 25., 17.,
          31., 12., 42., 30., 50., 14., 37., 51., 28., 27., 32., 32.,
          37. ]
      - [ 20., 3., 5., 18., 14., 3., 5., 2., 4., 4., 6., 19., 5., 5., 2.,
          7., 3., 7., 3., 6., 4., 4., 2., 13., 5., 1., 7., 7., 6., 8.,
          0., 7., 8., 0., 0., 1., 9., 8., 2., 4., 2., 10., 0., 3., 2.,
          4., 6., 6., 10., 2. ]
      - [ 9., 30., 34., 38., 39., 11., 202., 53., 18., 13., 23., 41.,
          14., 36., 26., 19., 82., 32., 16., 37., 29., 41., 27., 102.,
          52., 15., 72., 23., 11., 23., 45., 17., 51., 26., 13., 30., 7.,
          51., 12., 47., 26., 46., 27., 37., 52., 27., 22., 40., 18.,
          47. ]
      - [ 8., 2., 6., 10., 20., 1., 9., 17., 1., 1., 10., 26., 11., 6.,
          3., 6., 12., 25., 6., 21., 3., 3., 5., 19., 4., 5., 15., 27.,
          4., 18., 0., 10., 12., 14., 12., 0., 17., 31., 10., 13., 3.,
          15., 0., 3., 1., 10., 22., 1., 5., 7. ]
      - [ 8., 1., 3., 3., 2., 8., 5., 7., 3., 10., 9., 2., 11., 1., 8.,
          19., 1., 8., 20., 6., 11., 10., 6., 8., 1., 5., 25., 11., 2.,
          1., 22., 1., 13., 2., 15., 7., 10., 1., 11., 34., 9., 5., 1.,
          13., 2., 2., 1., 24., 5., 13. ]
      - [ 26., 42., 14., 14., 34., 13., 32., 24., 17., 12., 9., 19., 14.,
          16., 13., 14., 14., 25., 14., 14., 13., 20., 18., 8., 18., 17.,
          14., 15., 11., 10., 13., 17., 14., 15., 2., 16., 64., 23., 33.,
          25., 15., 11., 18., 19., 8., 30., 26., 15., 24., 10. ]
      - [ 28., 19., 12., 12., 18., 20., 20., 38., 14., 16., 2., 34., 34.,
          26., 31., 41., 21., 37., 44., 22., 36., 19., 15., 40., 27.,
          12., 40., 57., 29., 7., 69., 7., 19., 26., 74., 21., 20., 22.,
          18., 36., 22., 39., 5., 29., 32., 22., 21., 46., 28., 70. ]
      - [ 15., 31., 14., 26., 25., 11., 20., 25., 19., 21., 20., 28.,
          17., 16., 20., 20., 26., 50., 16., 2., 38., 9., 20., 12., 26.,
          21., 11., 21., 28., 31., 19., 15., 16., 28., 21., 22., 24.,
          29., 31., 20., 21., 13., 11., 20., 18., 19., 17., 31., 25.,
          25. ]
      - [ 10., 63., 9., 18., 8., 6., 13., 26., 4., 11., 24., 8., 10., 8.,
          11., 16., 6., 12., 15., 29., 21., 18., 19., 13., 35., 12., 6.,
          24., 5., 56., 11., 3., 16., 8., 16., 11., 19., 5., 50., 11.,
          7., 21., 7., 16., 7., 13., 22., 17., 12., 25. ]
      - [ 1., 6., 2., 8., 1., 3., 7., 1., 3., 0., 5., 1., 0., 4., 2., 3.,
          7., 8., 3., 4., 6., 5., 7., 6., 3., 3., 14., 2., 3., 4., 7.,
          3., 8., 5., 5., 1., 1., 2., 5., 10., 6., 15., 3., 2., 4., 3.,
          1., 11., 2., 3. ]
      - [ 5., 1., 5., 4., 36., 2., 1., 11., 3., 0., 0., 24., 9., 0., 0.,
          0., 0., 92., 40., 0., 0., 3., 2., 19., 4., 7., 6., 24., 0., 3.,
          0., 0., 1., 21., 19., 0., 3., 4., 16., 3., 6., 4., 0., 12., 0.,
          5., 22., 3., 1., 23. ]
      - [ 34., 65., 54., 76., 39., 43., 67., 48., 29., 33., 30., 63.,
          47., 40., 25., 30., 31., 27., 32., 60., 59., 45., 54., 55.,
          68., 54., 23., 24., 24., 40., 42., 51., 44., 50., 12., 58.,
          31., 61., 19., 35., 69., 52., 16., 54., 80., 42., 51., 35.,
          43., 31. ]
      - [ 2., 34., 11., 10., 2., 3., 3., 4., 12., 7., 9., 5., 2., 6.,
          15., 2., 6., 20., 7., 0., 15., 2., 5., 3., 15., 6., 1., 12.,
          8., 18., 3., 6., 12., 6., 7., 6., 13., 15., 29., 9., 2., 3.,
          4., 4., 7., 12., 3., 11., 4., 20. ]
      - [ 49., 146., 44., 24., 68., 137., 126., 120., 194., 124., 60.,
          15., 90., 96., 113., 72., 79., 29., 26., 63., 138., 137., 44.,
          61., 32., 73., 69., 55., 77., 36., 10., 99., 59., 135., 54.,
          42., 34., 66., 47., 79., 40., 96., 152., 37., 132., 100., 57.,
          42., 80., 81. ]
      - [ 47., 10., 14., 45., 33., 20., 24., 20., 15., 17., 16., 62., 6.,
          10., 27., 39., 44., 61., 12., 24., 13., 13., 7., 24., 7., 3.,
          18., 25., 10., 9., 0., 18., 24., 21., 10., 6., 26., 46., 24.,
          17., 3., 28., 10., 9., 8., 17., 19., 12., 20., 11. ]
      - [ 63., 48., 9., 50., 14., 41., 23., 6., 12., 18., 30., 16., 9.,
          23., 13., 48., 22., 18., 15., 12., 20., 19., 5., 19., 123., 4.,
          24., 10., 26., 11., 4., 13., 18., 10., 1., 139., 13., 16., 14.,
          19., 16., 29., 36., 29., 23., 23., 20., 24., 28., 8. ]
      - [ 30., 36., 67., 88., 60., 56., 51., 64., 53., 54., 25., 105.,
          25., 47., 31., 27., 33., 43., 26., 68., 38., 45., 47., 45.,
          86., 61., 14., 35., 36., 58., 73., 55., 53., 65., 9., 113.,
          44., 81., 24., 33., 47., 36., 12., 39., 87., 47., 74., 24.,
          59., 41. ]
      - [ 14., 11., 24., 17., 19., 30., 46., 42., 13., 9., 3., 26., 12.,
          15., 5., 15., 22., 9., 13., 20., 14., 11., 17., 28., 12., 8.,
          12., 16., 12., 13., 27., 21., 21., 20., 5., 23., 9., 19., 9.,
          18., 20., 41., 1., 20., 27., 13., 14., 20., 12., 64. ]
      - [ 8., 30., 8., 4., 13., 5., 8., 8., 21., 12., 6., 17., 7., 13.,
          16., 22., 7., 23., 12., 1., 21., 7., 12., 5., 19., 14., 12.,
          26., 36., 14., 5., 15., 19., 7., 7., 8., 9., 7., 57., 16., 5.,
          7., 6., 6., 30., 10., 10., 15., 10., 15. ]
      - [ 7., 10., 2., 6., 19., 5., 11., 7., 9., 6., 1., 4., 6., 7., 11.,
          4., 4., 14., 9., 5., 4., 1., 6., 1., 8., 2., 6., 3., 10., 3.,
          10., 3., 5., 1., 9., 4., 7., 11., 12., 13., 5., 2., 8., 7., 2.,
          9., 5., 10., 5., 4. ]
      - [ 28., 10., 8., 14., 12., 40., 24., 23., 50., 2., 4., 14., 18.,
          9., 5., 15., 26., 10., 9., 29., 59., 5., 6., 6., 48., 28., 10.,
          14., 31., 7., 15., 34., 9., 15., 33., 66., 15., 9., 23., 11.,
          14., 11., 4., 14., 8., 15., 10., 14., 13., 49. ]
      - [ 55., 13., 11., 47., 15., 19., 32., 24., 16., 21., 24., 21.,
          22., 29., 12., 63., 9., 3., 8., 25., 39., 24., 21., 16., 40.,
          25., 14., 15., 23., 24., 0., 20., 24., 16., 12., 9., 20., 17.,
          17., 26., 9., 22., 13., 11., 28., 13., 19., 20., 22., 12. ]
      - [ 9., 6., 2., 9., 7., 10., 4., 1., 2., 2., 3., 9., 0., 1., 5.,
          21., 3., 1., 6., 2., 3., 8., 2., 7., 8., 3., 4., 4., 2., 2.,
          0., 1., 12., 0., 0., 6., 3., 6., 6., 3., 0., 5., 9., 6., 2.,
          1., 1., 4., 9., 0. ]
      - [ 39., 2., 8., 23., 19., 3., 57., 13., 2., 16., 5., 20., 8., 10.,
          8., 19., 4., 29., 12., 4., 9., 13., 61., 15., 17., 17., 22.,
          14., 11., 15., 1., 43., 16., 12., 8., 12., 22., 15., 9., 11.,
          14., 65., 1., 2., 13., 6., 19., 15., 38., 19. ]
      - [ 15., 44., 8., 2., 10., 3., 10., 27., 8., 5., 22., 3., 4., 4.,
          4., 6., 6., 51., 6., 27., 10., 18., 16., 2., 14., 5., 3., 8.,
          7., 30., 4., 8., 5., 4., 2., 2., 59., 11., 34., 17., 4., 21.,
          1., 13., 5., 10., 8., 16., 8., 6. ]
      - [ 25., 11., 9., 8., 4., 17., 6., 2., 28., 9., 146., 11., 15.,
          33., 28., 67., 0., 42., 41., 5., 11., 22., 11., 12., 9., 17.,
          35., 70., 40., 18., 29., 16., 19., 15., 206., 5., 10., 9., 11.,
          46., 15., 9., 136., 8., 12., 37., 18., 24., 16., 14. ]
      - [ 51., 2., 5., 38., 10., 2., 5., 20., 6., 6., 10., 26., 15., 1.,
          8., 15., 5., 29., 21., 6., 6., 4., 7., 15., 2., 15., 13., 4.,
          2., 10., 0., 4., 19., 10., 27., 1., 14., 13., 16., 8., 4., 12.,
          7., 12., 4., 4., 6., 2., 5., 10. ]
      - [ 26., 29., 28., 20., 26., 18., 30., 46., 33., 16., 30., 41.,
          33., 32., 28., 33., 24., 18., 24., 32., 37., 38., 48., 29.,
          48., 22., 29., 18., 29., 40., 20., 32., 27., 33., 18., 18.,
          18., 29., 30., 42., 45., 51., 20., 23., 31., 40., 11., 27.,
          41., 38. ]
      - [ 7., 26., 8., 15., 8., 6., 6., 18., 7., 9., 16., 14., 6., 6.,
          7., 15., 4., 4., 6., 15., 13., 11., 8., 6., 15., 5., 4., 6.,
          5., 28., 10., 14., 6., 6., 8., 13., 2., 4., 35., 10., 5., 9.,
          10., 6., 10., 17., 5., 3., 3., 19. ]
      - [ 11., 2., 2., 6., 1., 8., 3., 8., 4., 1., 1., 2., 12., 3., 4.,
          10., 0., 1., 7., 4., 7., 1., 2., 3., 4., 8., 4., 10., 6., 2.,
          28., 2., 2., 10., 2., 8., 3., 5., 1., 5., 3., 2., 1., 4., 3.,
          1., 8., 5., 9., 38. ]
      - [ 59., 101., 36., 46., 68., 87., 91., 136., 176., 71., 46., 31.,
          72., 72., 73., 44., 56., 40., 15., 43., 92., 89., 51., 58.,
          19., 67., 47., 55., 42., 41., 2., 82., 40., 99., 58., 25., 32.,
          45., 41., 52., 32., 50., 95., 25., 71., 75., 55., 39., 51.,
          70. ]
      - [ 37., 58., 35., 44., 23., 36., 29., 68., 35., 43., 24., 49.,
          36., 44., 46., 71., 20., 65., 62., 47., 50., 48., 50., 29.,
          76., 24., 63., 83., 24., 18., 230., 30., 54., 46., 52., 57.,
          61., 54., 65., 77., 43., 48., 10., 72., 45., 51., 61., 55.,
          38., 174. ]
      - [ 10., 40., 4., 14., 8., 16., 9., 12., 14., 13., 39., 42., 37.,
          11., 5., 57., 7., 40., 4., 4., 28., 63., 12., 25., 8., 18.,
          53., 57., 32., 24., 8., 21., 24., 17., 3., 19., 16., 4., 14.,
          5., 26., 42., 14., 22., 29., 16., 15., 7., 26., 10. ]
      - [ 43., 67., 22., 28., 21., 30., 19., 23., 13., 24., 17., 39.,
          81., 25., 22., 40., 23., 20., 21., 40., 40., 9., 21., 26., 39.,
          44., 19., 67., 11., 50., 9., 34., 22., 36., 24., 30., 14., 21.,
          62., 22., 21., 21., 21., 22., 18., 25., 33., 55., 39., 12. ]
      - [ 129., 48., 30., 62., 45., 56., 49., 44., 41., 47., 48., 28.,
          39., 34., 42., 34., 46., 19., 6., 20., 43., 52., 24., 33., 39.,
          24., 38., 37., 38., 26., 1., 32., 17., 44., 25., 30., 40., 36.,
          26., 25., 19., 42., 36., 16., 54., 31., 28., 23., 25., 28. ]
      - [ 15., 59., 6., 29., 23., 6., 24., 27., 22., 11., 25., 13., 5.,
          18., 37., 9., 16., 34., 18., 3., 27., 16., 37., 13., 69., 13.,
          10., 15., 22., 66., 6., 14., 22., 11., 20., 8., 37., 16., 44.,
          11., 15., 31., 10., 31., 8., 9., 18., 29., 22., 22. ]
      - [ 28., 36., 48., 40., 47., 32., 73., 40., 29., 19., 25., 60.,
          38., 47., 29., 18., 46., 12., 21., 57., 55., 36., 51., 47.,
          41., 27., 30., 22., 23., 41., 33., 36., 38., 44., 9., 29., 23.,
          37., 18., 48., 61., 73., 23., 35., 66., 45., 24., 32., 29.,
          29. ]
      - [ 52., 6., 5., 50., 19., 7., 10., 7., 1., 3., 8., 71., 5., 3.,
          3., 6., 10., 83., 156., 3., 5., 1., 3., 10., 20., 1., 13., 12.,
          4., 9., 0., 5., 9., 7., 4., 91., 17., 11., 62., 6., 6., 10.,
          3., 101., 2., 4., 7., 9., 8., 3. ]
      - [ 48., 70., 64., 44., 51., 39., 43., 47., 59., 37., 44., 61.,
          64., 54., 39., 42., 52., 55., 47., 52., 157., 79., 83., 59.,
          38., 29., 80., 42., 30., 79., 37., 39., 41., 69., 48., 42.,
          37., 41., 40., 84., 83., 125., 15., 61., 55., 71., 26., 81.,
          80., 39. ]
      - [ 12., 5., 2., 19., 10., 16., 32., 35., 7., 0., 18., 22., 16.,
          10., 19., 10., 8., 12., 15., 10., 2., 6., 1., 14., 23., 3., 5.,
          14., 15., 6., 14., 7., 34., 7., 3., 125., 1., 13., 2., 21., 6.,
          3., 11., 0., 20., 13., 5., 3., 14., 11. ]
      - [ 6., 3., 0., 4., 2., 1., 3., 4., 2., 4., 0., 7., 7., 4., 3., 7.,
          2., 2., 7., 3., 0., 3., 0., 5., 2., 6., 9., 5., 3., 1., 31.,
          4., 4., 0., 2., 3., 3., 3., 2., 9., 6., 1., 0., 5., 8., 1., 4.,
          6., 2., 25. ]
      - [ 16., 19., 9., 5., 16., 10., 117., 25., 10., 12., 7., 13., 16.,
          10., 12., 15., 90., 17., 13., 20., 8., 16., 12., 25., 6., 11.,
          10., 18., 18., 4., 47., 15., 12., 17., 10., 25., 13., 3., 14.,
          19., 9., 17., 0., 28., 20., 6., 20., 8., 9., 40. ]
      - [ 36., 17., 4., 21., 22., 47., 14., 29., 14., 24., 31., 61., 59.,
          10., 7., 59., 16., 11., 19., 14., 26., 57., 27., 51., 35., 54.,
          135., 49., 20., 33., 15., 21., 18., 19., 13., 23., 25., 11.,
          6., 5., 21., 29., 18., 19., 19., 13., 8., 2., 29., 12. ]
      - [ 7., 2., 3., 6., 0., 0., 0., 4., 5., 2., 0., 4., 4., 3., 1.,
          10., 0., 3., 10., 1., 2., 2., 1., 0., 4., 8., 1., 13., 5., 1.,
          17., 7., 4., 6., 2., 6., 2., 4., 3., 3., 2., 0., 0., 1., 5.,
          4., 11., 4., 6., 11. ]
      - [ 8., 33., 14., 12., 12., 8., 8., 8., 5., 7., 2., 7., 6., 8.,
          13., 12., 3., 4., 19., 9., 16., 3., 4., 10., 25., 11., 5., 6.,
          8., 21., 14., 8., 17., 13., 7., 4., 9., 13., 31., 15., 5., 5.,
          6., 11., 11., 12., 11., 28., 3., 11. ]
      - [ 97., 27., 7., 58., 20., 24., 9., 6., 4., 7., 12., 14., 9., 15.,
          5., 19., 7., 17., 9., 6., 12., 12., 4., 28., 20., 9., 15., 11.,
          4., 4., 0., 7., 12., 13., 12., 21., 10., 10., 8., 12., 28.,
          19., 22., 16., 12., 25., 18., 23., 12., 9. ]
      - [ 16., 30., 36., 15., 36., 17., 31., 12., 20., 22., 13., 36.,
          23., 33., 23., 15., 12., 10., 11., 23., 47., 21., 33., 33.,
          31., 8., 17., 13., 11., 28., 14., 9., 22., 36., 2., 28., 7.,
          24., 5., 22., 34., 44., 8., 16., 36., 22., 21., 31., 26., 14. ]
      - [ 9., 5., 4., 2., 9., 6., 36., 17., 7., 4., 5., 11., 5., 14., 3.,
          8., 613., 9., 7., 7., 6., 6., 10., 3., 6., 3., 1., 10., 1., 4.,
          37., 3., 6., 1., 1., 14., 3., 3., 4., 7., 12., 7., 2., 7., 14.,
          8., 6., 4., 8., 19. ]
      - [ 10., 55., 3., 17., 5., 9., 5., 7., 7., 3., 18., 1., 8., 12.,
          9., 5., 2., 1., 11., 3., 15., 4., 6., 0., 22., 18., 12., 3.,
          6., 7., 2., 3., 11., 9., 7., 8., 7., 12., 56., 4., 6., 6., 11.,
          2., 3., 10., 3., 15., 7., 5. ]
      - [ 13., 11., 2., 45., 10., 6., 9., 27., 14., 24., 33., 24., 13.,
          12., 31., 36., 5., 3., 51., 1., 52., 340., 29., 12., 73., 12.,
          10., 20., 11., 104., 1., 15., 44., 7., 18., 16., 16., 11., 23.,
          11., 11., 39., 9., 44., 26., 10., 31., 6., 10., 25. ]
      - [ 28., 70., 24., 14., 45., 21., 37., 34., 27., 13., 15., 26.,
          12., 33., 31., 12., 30., 37., 19., 16., 24., 11., 24., 21.,
          23., 20., 20., 10., 17., 24., 22., 26., 18., 28., 17., 20.,
          46., 31., 60., 33., 22., 17., 21., 28., 14., 38., 23., 25.,
          19., 16. ]
      - [ 16., 3., 1., 10., 12., 2., 4., 2., 3., 6., 4., 13., 5., 3., 1.,
          8., 7., 3., 3., 4., 4., 4., 4., 10., 5., 1., 10., 5., 3., 7.,
          0., 6., 10., 2., 0., 1., 10., 5., 6., 3., 2., 7., 1., 1., 1.,
          6., 5., 4., 10., 3. ]
      - [ 4., 19., 3., 13., 6., 2., 3., 12., 3., 5., 10., 8., 5., 4., 6.,
          10., 5., 2., 15., 25., 17., 10., 14., 6., 20., 7., 3., 12., 3.,
          43., 5., 3., 10., 2., 5., 11., 9., 2., 21., 2., 2., 6., 3., 2.,
          7., 6., 7., 2., 4., 18. ]
      - [ 34., 4., 15., 38., 24., 18., 15., 11., 9., 14., 21., 70., 11.,
          8., 13., 30., 32., 44., 10., 18., 11., 16., 5., 15., 13., 2.,
          13., 21., 7., 10., 0., 16., 16., 14., 11., 6., 15., 37., 24.,
          20., 4., 19., 11., 14., 5., 21., 14., 9., 24., 9. ]
      - [ 22., 30., 10., 5., 17., 8., 16., 11., 7., 5., 5., 8., 7., 11.,
          10., 7., 14., 27., 6., 11., 4., 4., 9., 7., 4., 6., 16., 2.,
          7., 2., 10., 3., 8., 3., 1., 2., 18., 10., 19., 7., 15., 3.,
          8., 11., 7., 21., 2., 21., 8., 7. ]
      - [ 56., 26., 10., 57., 30., 12., 13., 27., 24., 20., 10., 57.,
          17., 7., 22., 17., 25., 35., 27., 22., 7., 17., 11., 24., 35.,
          11., 25., 25., 17., 20., 0., 23., 9., 15., 0., 19., 29., 38.,
          29., 16., 10., 25., 44., 22., 12., 18., 29., 5., 22., 19. ]
      - [ 8., 34., 15., 8., 31., 9., 19., 19., 7., 9., 7., 31., 17., 9.,
          5., 14., 9., 17., 13., 27., 20., 15., 10., 17., 20., 11., 4.,
          14., 8., 39., 22., 23., 17., 5., 15., 14., 4., 14., 19., 6.,
          7., 7., 11., 6., 7., 9., 10., 18., 13., 9. ]
      - [ 5., 0., 9., 18., 4., 7., 4., 15., 6., 1., 46., 15., 9., 8., 7.,
          2., 3., 4., 7., 9., 2., 2., 7., 2., 9., 5., 2., 8., 1., 2.,
          18., 7., 2., 8., 1., 26., 5., 14., 5., 3., 5., 3., 70., 6.,
          13., 11., 8., 6., 3., 29. ]
      - [ 13., 28., 39., 21., 23., 25., 33., 26., 13., 15., 17., 39.,
          15., 28., 19., 10., 24., 12., 11., 25., 31., 26., 41., 34.,
          58., 23., 25., 12., 11., 37., 17., 27., 23., 27., 3., 24., 17.,
          23., 12., 32., 31., 50., 11., 14., 41., 39., 24., 24., 16.,
          14. ]
      - [ 11., 47., 8., 18., 8., 2., 11., 9., 5., 13., 7., 8., 6., 10.,
          7., 13., 7., 9., 13., 17., 17., 6., 2., 4., 25., 18., 6., 5.,
          4., 34., 4., 8., 11., 8., 6., 5., 2., 4., 23., 17., 6., 6.,
          10., 6., 10., 14., 9., 14., 4., 9. ]
      - [ 5., 6., 10., 13., 11., 11., 44., 14., 3., 8., 5., 11., 4., 8.,
          3., 14., 34., 14., 13., 21., 16., 6., 12., 26., 16., 2., 7.,
          9., 2., 5., 91., 5., 4., 7., 4., 21., 5., 12., 15., 14., 15.,
          33., 3., 12., 8., 2., 8., 14., 6., 29. ]
      - [ 10., 22., 4., 12., 4., 6., 11., 28., 7., 8., 8., 11., 12., 6.,
          19., 19., 5., 27., 26., 6., 21., 22., 12., 7., 13., 6., 30.,
          28., 6., 5., 48., 8., 9., 6., 27., 15., 4., 12., 13., 16., 9.,
          28., 5., 10., 11., 8., 6., 16., 10., 59. ]
      - [ 31., 93., 24., 26., 42., 14., 39., 27., 32., 10., 14., 10.,
          15., 27., 34., 15., 27., 44., 26., 19., 29., 7., 41., 18., 32.,
          17., 24., 11., 28., 27., 32., 18., 24., 28., 15., 23., 52.,
          39., 68., 33., 17., 16., 20., 14., 14., 27., 25., 30., 26.,
          27. ]
      - [ 42., 46., 31., 28., 38., 51., 31., 74., 30., 38., 34., 38.,
          33., 52., 25., 33., 21., 38., 54., 27., 45., 43., 20., 50.,
          116., 57., 45., 34., 43., 30., 5., 23., 16., 49., 44., 39.,
          34., 32., 27., 37., 62., 44., 20., 57., 69., 73., 40., 54.,
          28., 44. ]
      - [ 15., 34., 27., 22., 43., 19., 59., 26., 10., 21., 94., 32.,
          15., 57., 23., 14., 74., 20., 19., 45., 62., 53., 40., 47.,
          32., 3., 38., 20., 12., 22., 14., 15., 25., 13., 9., 19., 21.,
          31., 8., 30., 75., 62., 81., 19., 40., 28., 5., 31., 16., 11. ]
      - [ 37., 15., 15., 37., 21., 28., 26., 12., 11., 15., 16., 59., 9.,
          12., 17., 15., 20., 50., 22., 12., 12., 24., 11., 18., 22., 8.,
          31., 17., 13., 12., 0., 19., 16., 21., 9., 32., 19., 33., 22.,
          14., 17., 22., 6., 22., 20., 14., 21., 20., 13., 7. ]
      - [ 42., 30., 14., 25., 13., 28., 13., 7., 11., 11., 21., 13., 12.,
          38., 14., 24., 21., 19., 6., 9., 35., 28., 3., 12., 50., 5.,
          16., 8., 21., 9., 2., 9., 15., 13., 8., 33., 8., 28., 23., 20.,
          10., 17., 30., 46., 26., 28., 17., 23., 20., 7. ]
      - [ 11., 0., 2., 6., 8., 1., 4., 2., 1., 3., 5., 9., 3., 3., 0.,
          4., 2., 9., 2., 3., 1., 2., 1., 7., 7., 0., 4., 9., 5., 7., 0.,
          3., 3., 2., 1., 0., 5., 5., 3., 4., 3., 4., 1., 1., 1., 4.,
          14., 3., 6., 5. ]
      - [ 41., 25., 3., 42., 11., 18., 7., 6., 13., 8., 10., 5., 4., 23.,
          9., 10., 11., 13., 5., 5., 9., 17., 5., 16., 13., 9., 10., 6.,
          11., 5., 0., 4., 14., 18., 11., 8., 10., 7., 4., 10., 15., 21.,
          13., 12., 17., 17., 12., 28., 26., 13. ]
      - [ 11., 8., 7., 10., 14., 5., 15., 7., 2., 7., 6., 11., 18., 6.,
          12., 20., 8., 23., 13., 7., 16., 20., 17., 18., 4., 9., 32.,
          18., 3., 5., 41., 8., 15., 7., 20., 13., 6., 7., 16., 20., 20.,
          11., 11., 15., 8., 1., 13., 24., 5., 47. ]
      - [ 98., 9., 17., 96., 56., 8., 42., 61., 17., 14., 34., 85., 24.,
          16., 13., 36., 28., 107., 63., 14., 17., 15., 45., 47., 14.,
          23., 52., 42., 9., 26., 6., 24., 49., 42., 39., 10., 109., 39.,
          33., 16., 22., 84., 6., 19., 17., 19., 41., 21., 57., 33. ]
      - [ 55., 7., 3., 58., 17., 11., 2., 8., 4., 3., 15., 39., 4., 5.,
          7., 30., 6., 45., 7., 17., 8., 6., 4., 10., 11., 1., 11., 8.,
          5., 7., 0., 5., 22., 10., 0., 6., 18., 13., 16., 11., 9., 12.,
          15., 11., 4., 3., 6., 4., 10., 4. ]
      - [ 9., 50., 8., 12., 32., 12., 31., 26., 9., 7., 23., 8., 8., 19.,
          14., 10., 9., 48., 7., 8., 15., 5., 32., 11., 22., 12., 10.,
          0., 10., 17., 17., 3., 9., 14., 10., 7., 42., 20., 44., 27.,
          7., 8., 9., 13., 7., 11., 8., 18., 10., 7. ]
      - [ 7., 34., 4., 3., 13., 5., 8., 8., 7., 5., 8., 8., 3., 7., 6.,
          2., 7., 21., 12., 3., 12., 4., 10., 4., 8., 2., 4., 2., 11.,
          7., 6., 1., 8., 6., 8., 4., 5., 9., 22., 15., 4., 8., 6., 6.,
          1., 8., 8., 17., 8., 7. ]
      - [ 18., 12., 33., 45., 22., 28., 22., 28., 17., 29., 9., 26., 25.,
          15., 12., 17., 12., 13., 18., 31., 12., 21., 22., 25., 28.,
          21., 6., 15., 19., 19., 14., 18., 18., 11., 2., 41., 18., 42.,
          17., 13., 30., 14., 5., 31., 41., 19., 28., 14., 21., 12. ]
      - [ 5., 27., 4., 11., 8., 3., 5., 10., 3., 7., 10., 5., 5., 10.,
          4., 8., 5., 9., 9., 3., 10., 1., 6., 7., 19., 10., 2., 8., 6.,
          18., 4., 5., 6., 7., 9., 12., 4., 11., 27., 14., 5., 10., 3.,
          7., 8., 9., 8., 32., 7., 4. ]
      - [ 25., 32., 10., 33., 65., 18., 18., 93., 29., 38., 9., 32., 16.,
          15., 16., 12., 17., 24., 97., 17., 22., 15., 22., 87., 14.,
          59., 21., 20., 9., 39., 5., 21., 13., 48., 79., 14., 23., 9.,
          37., 17., 19., 29., 14., 59., 21., 74., 33., 12., 17., 45. ]
      - [ 7., 23., 18., 11., 35., 10., 22., 19., 9., 10., 59., 9., 19.,
          6., 48., 31., 49., 94., 17., 43., 62., 25., 43., 34., 4., 7.,
          111., 26., 12., 4., 29., 10., 23., 16., 45., 15., 7., 10., 37.,
          50., 50., 47., 26., 12., 11., 9., 10., 48., 22., 23. ]
      - [ 24., 36., 7., 39., 38., 41., 20., 55., 23., 16., 10., 37., 22.,
          17., 8., 13., 18., 26., 49., 15., 13., 26., 9., 37., 22., 32.,
          19., 16., 14., 36., 11., 15., 12., 24., 39., 35., 25., 16.,
          31., 16., 11., 29., 6., 57., 25., 50., 25., 11., 15., 25. ]
      - [ 8., 14., 3., 14., 9., 10., 7., 19., 29., 10., 10., 35., 11.,
          10., 7., 29., 2., 4., 9., 0., 16., 10., 3., 18., 18., 12., 5.,
          35., 29., 36., 2., 17., 18., 6., 6., 15., 7., 1., 11., 5., 9.,
          8., 11., 8., 22., 7., 11., 3., 1., 16. ]
      - [ 67., 8., 9., 20., 18., 14., 10., 10., 5., 3., 14., 18., 5., 7.,
          11., 11., 5., 17., 2., 6., 5., 8., 3., 15., 14., 5., 9., 9.,
          5., 6., 2., 9., 12., 10., 8., 3., 10., 13., 8., 7., 3., 14.,
          36., 5., 5., 4., 11., 11., 14., 2. ]
      - [ 45., 5., 8., 39., 30., 5., 7., 21., 10., 4., 3., 43., 8., 7.,
          4., 11., 6., 117., 28., 8., 4., 8., 2., 30., 3., 7., 14., 20.,
          7., 4., 1., 7., 6., 29., 17., 2., 19., 19., 40., 11., 11., 12.,
          4., 15., 8., 5., 13., 8., 9., 11. ]
      - [ 4., 5., 3., 10., 4., 5., 1., 25., 6., 1., 10., 7., 4., 3., 7.,
          6., 3., 9., 3., 5., 1., 1., 5., 2., 1., 2., 4., 6., 3., 1.,
          16., 4., 2., 6., 1., 7., 2., 3., 3., 11., 6., 5., 0., 0., 7.,
          1., 4., 10., 2., 13. ]
      - [ 9., 10., 8., 11., 8., 7., 11., 5., 4., 2., 1., 6., 9., 7., 6.,
          11., 16., 22., 11., 6., 24., 6., 17., 14., 3., 7., 14., 19.,
          9., 3., 42., 2., 4., 7., 16., 16., 5., 7., 3., 20., 7., 27.,
          2., 12., 8., 3., 10., 12., 13., 41. ]
      - [ 11., 2., 2., 6., 1., 8., 3., 8., 4., 1., 1., 2., 12., 3., 4.,
          10., 0., 1., 7., 4., 7., 1., 2., 3., 4., 8., 4., 10., 6., 2.,
          28., 2., 2., 10., 2., 8., 3., 5., 1., 5., 3., 2., 1., 4., 3.,
          1., 8., 5., 9., 38. ]
      - [ 8., 26., 9., 5., 13., 18., 8., 8., 26., 16., 5., 26., 4., 16.,
          13., 32., 6., 21., 12., 1., 19., 8., 14., 13., 13., 11., 10.,
          43., 52., 14., 5., 9., 24., 15., 10., 9., 3., 8., 50., 18., 9.,
          5., 10., 6., 21., 19., 20., 16., 9., 22. ]
      - [ 162., 45., 28., 73., 35., 51., 31., 21., 26., 31., 38., 16.,
          29., 26., 37., 31., 24., 31., 34., 18., 39., 36., 22., 38.,
          47., 26., 31., 22., 34., 13., 5., 22., 26., 41., 24., 22., 31.,
          26., 25., 21., 21., 25., 27., 34., 32., 39., 24., 18., 32.,
          29. ]
      - [ 14., 25., 39., 74., 44., 27., 70., 39., 26., 20., 8., 42., 15.,
          28., 22., 28., 58., 25., 14., 53., 19., 46., 33., 56., 43.,
          16., 14., 21., 29., 34., 18., 29., 36., 21., 6., 47., 35., 66.,
          20., 27., 41., 30., 12., 37., 66., 23., 26., 18., 32., 9. ]
      - [ 13., 5., 6., 2., 6., 8., 14., 2., 5., 4., 3., 4., 12., 2., 9.,
          20., 17., 13., 24., 4., 50., 9., 17., 16., 5., 2., 26., 23.,
          6., 7., 59., 5., 8., 5., 13., 21., 7., 4., 5., 17., 18., 43.,
          1., 20., 5., 3., 13., 17., 4., 57. ]
      - [ 5., 0., 2., 4., 0., 2., 0., 2., 1., 1., 1., 5., 6., 1., 4., 5.,
          0., 5., 4., 1., 9., 1., 2., 1., 6., 6., 10., 10., 0., 2., 10.,
          1., 1., 2., 4., 2., 0., 2., 0., 2., 4., 12., 2., 2., 2., 1.,
          1., 8., 8., 11. ]
      - [ 35., 29., 20., 19., 31., 18., 98., 48., 21., 7., 20., 33., 29.,
          25., 18., 41., 62., 28., 35., 40., 40., 25., 31., 41., 17.,
          15., 34., 33., 22., 25., 35., 14., 22., 18., 28., 57., 19.,
          30., 25., 32., 26., 36., 10., 28., 26., 23., 19., 26., 23.,
          38. ]
      - [ 23., 39., 18., 15., 20., 20., 4., 5., 35., 16., 24., 18., 47.,
          19., 27., 35., 1., 52., 31., 8., 42., 41., 14., 7., 12., 21.,
          45., 42., 32., 27., 15., 30., 20., 26., 79., 4., 22., 18., 25.,
          42., 27., 31., 14., 31., 10., 18., 16., 39., 42., 26. ]
      - [ 31., 23., 14., 25., 90., 24., 25., 117., 32., 38., 20., 58.,
          32., 23., 16., 17., 32., 54., 64., 26., 35., 19., 26., 87., 7.,
          66., 35., 47., 14., 46., 4., 28., 23., 69., 86., 9., 43., 21.,
          38., 26., 19., 40., 20., 50., 26., 70., 53., 13., 27., 60. ]
      - [ 10., 27., 19., 26., 23., 19., 10., 15., 24., 13., 19., 9., 15.,
          30., 29., 18., 3., 33., 19., 24., 15., 24., 34., 14., 10., 27.,
          11., 21., 14., 26., 48., 32., 27., 26., 14., 17., 21., 29.,
          26., 22., 22., 10., 16., 18., 25., 24., 16., 17., 26., 63. ]
      - [ 2., 41., 1., 9., 10., 4., 6., 13., 9., 9., 4., 8., 2., 14.,
          20., 11., 3., 0., 3., 4., 12., 1., 7., 2., 20., 8., 4., 11.,
          5., 13., 6., 8., 15., 5., 6., 12., 1., 10., 31., 8., 1., 8.,
          6., 9., 8., 6., 13., 15., 1., 14. ]
      - [ 17., 22., 6., 10., 15., 7., 17., 11., 11., 4., 11., 10., 2.,
          7., 8., 4., 8., 19., 13., 22., 6., 4., 9., 8., 10., 5., 0., 4.,
          6., 12., 16., 9., 9., 7., 6., 9., 13., 16., 19., 15., 5., 11.,
          9., 7., 5., 16., 6., 19., 10., 16. ]
      - [ 10., 2., 5., 7., 7., 12., 3., 8., 8., 7., 0., 8., 15., 7., 5.,
          11., 0., 6., 5., 3., 0., 4., 6., 0., 5., 9., 2., 8., 10., 4.,
          15., 4., 4., 7., 3., 17., 4., 7., 9., 8., 6., 4., 0., 5., 9.,
          7., 12., 4., 4., 9. ]
      - [ 11., 17., 54., 59., 37., 25., 90., 62., 29., 20., 19., 70.,
          12., 21., 17., 17., 65., 13., 21., 39., 23., 28., 25., 58.,
          65., 20., 23., 10., 18., 44., 32., 36., 37., 28., 7., 69., 14.,
          44., 8., 29., 36., 67., 15., 35., 52., 32., 22., 36., 25., 26. ]
      - [ 35., 25., 35., 24., 38., 18., 100., 92., 21., 20., 8., 62.,
          25., 23., 32., 33., 91., 25., 30., 52., 76., 24., 44., 101.,
          47., 15., 35., 41., 19., 40., 63., 25., 39., 40., 22., 35.,
          13., 33., 18., 71., 33., 127., 4., 56., 74., 26., 20., 60.,
          46., 77. ]
      - [ 68., 92., 46., 64., 58., 64., 77., 76., 45., 47., 74., 67.,
          59., 71., 55., 38., 46., 40., 64., 42., 100., 54., 89., 41.,
          175., 62., 27., 49., 51., 133., 71., 61., 69., 70., 51., 65.,
          48., 55., 119., 57., 64., 63., 58., 65., 28., 57., 55., 58.,
          55., 71. ]
      - [ 16., 18., 8., 17., 13., 22., 9., 3., 8., 7., 9., 11., 3., 9.,
          2., 16., 18., 24., 9., 12., 13., 19., 4., 11., 5., 5., 10.,
          11., 16., 2., 1., 4., 21., 6., 5., 12., 12., 19., 11., 10., 6.,
          11., 5., 13., 14., 25., 7., 15., 16., 9. ]
      - [ 3., 41., 11., 6., 12., 7., 6., 8., 5., 9., 13., 5., 2., 10.,
          5., 6., 7., 11., 6., 13., 16., 17., 5., 5., 14., 15., 7., 6.,
          5., 27., 23., 2., 12., 16., 8., 6., 18., 14., 34., 18., 4.,
          23., 4., 5., 8., 17., 8., 18., 9., 1. ]
      - [ 8., 6., 7., 16., 2., 10., 7., 14., 8., 7., 0., 9., 10., 6., 8.,
          8., 4., 5., 14., 4., 3., 5., 5., 2., 11., 12., 1., 17., 3., 4.,
          44., 11., 10., 8., 3., 28., 11., 12., 11., 10., 5., 3., 2., 9.,
          17., 17., 15., 4., 16., 23. ]
      - [ 4., 16., 1., 3., 4., 5., 5., 15., 21., 8., 14., 15., 5., 12.,
          12., 14., 5., 11., 4., 1., 15., 19., 7., 6., 11., 9., 4., 22.,
          26., 8., 1., 17., 15., 13., 4., 15., 11., 3., 13., 10., 9.,
          13., 9., 14., 16., 11., 22., 3., 3., 18. ]
      - [ 38., 35., 25., 21., 11., 20., 11., 16., 19., 14., 37., 23.,
          27., 22., 19., 24., 3., 20., 26., 9., 9., 24., 17., 16., 18.,
          27., 7., 40., 21., 38., 26., 25., 14., 23., 28., 34., 16., 22.,
          23., 24., 26., 15., 20., 15., 22., 26., 40., 25., 40., 30. ]
      - [ 70., 12., 9., 51., 18., 14., 14., 6., 15., 18., 13., 23., 6.,
          13., 6., 20., 12., 25., 12., 20., 12., 20., 6., 23., 27., 5.,
          15., 6., 13., 3., 1., 7., 22., 4., 4., 10., 4., 18., 20., 11.,
          5., 24., 21., 14., 8., 11., 12., 13., 24., 7. ]
      - [ 17., 11., 6., 13., 3., 6., 2., 20., 8., 12., 23., 16., 17., 9.,
          10., 20., 1., 8., 15., 8., 5., 10., 11., 3., 10., 19., 4., 15.,
          4., 8., 32., 13., 7., 17., 8., 25., 5., 19., 12., 12., 7., 3.,
          19., 17., 12., 17., 36., 7., 19., 14. ]
      - [ 2., 162., 4., 16., 12., 8., 14., 18., 11., 10., 11., 17., 6.,
          8., 17., 11., 9., 16., 17., 10., 21., 12., 11., 8., 31., 15.,
          6., 11., 8., 19., 7., 5., 15., 11., 8., 12., 11., 12., 134.,
          18., 9., 6., 15., 7., 5., 6., 10., 25., 12., 21. ]
      - [ 11., 45., 3., 23., 3., 4., 7., 18., 5., 13., 16., 12., 42., 6.,
          14., 28., 5., 9., 28., 54., 23., 42., 30., 21., 43., 11., 15.,
          36., 5., 57., 13., 14., 21., 6., 14., 15., 23., 10., 46., 9.,
          9., 31., 0., 20., 12., 7., 27., 7., 14., 16. ]
      - [ 61., 19., 12., 56., 42., 21., 26., 39., 20., 23., 26., 78.,
          13., 14., 25., 29., 47., 82., 18., 28., 16., 25., 15., 31.,
          13., 6., 24., 24., 9., 19., 1., 23., 27., 32., 22., 9., 23.,
          39., 29., 21., 10., 37., 21., 15., 13., 17., 32., 12., 30.,
          24. ]
      - [ 37., 60., 61., 77., 46., 49., 66., 48., 37., 35., 23., 66.,
          51., 32., 32., 37., 38., 29., 31., 60., 53., 42., 54., 52.,
          47., 41., 22., 27., 27., 56., 59., 56., 46., 51., 15., 70.,
          38., 67., 30., 44., 62., 46., 15., 47., 72., 32., 44., 39.,
          49., 46. ]
      - [ 23., 15., 10., 21., 13., 24., 14., 33., 6., 9., 8., 23., 21.,
          14., 14., 26., 6., 8., 21., 15., 18., 16., 19., 24., 19., 11.,
          23., 27., 11., 15., 46., 10., 14., 18., 12., 69., 16., 22., 7.,
          15., 9., 23., 0., 15., 21., 11., 18., 16., 15., 34. ]
      - [ 33., 16., 9., 9., 40., 15., 35., 105., 45., 45., 6., 9., 15.,
          13., 20., 9., 2., 15., 70., 3., 6., 10., 17., 56., 6., 85.,
          23., 15., 1., 25., 18., 19., 7., 30., 169., 1., 16., 13., 32.,
          3., 15., 33., 20., 22., 9., 33., 16., 7., 7., 62. ]
      - [ 37., 22., 22., 75., 40., 32., 22., 55., 27., 10., 16., 46.,
          17., 18., 17., 9., 62., 38., 37., 16., 16., 37., 16., 25., 23.,
          17., 27., 32., 17., 21., 1., 24., 31., 36., 17., 42., 23., 29.,
          42., 16., 3., 29., 16., 19., 26., 27., 25., 10., 27., 24. ]
      - [ 52., 2., 9., 34., 9., 1., 3., 11., 2., 3., 9., 10., 7., 1., 9.,
          18., 5., 22., 0., 8., 5., 1., 5., 16., 2., 2., 15., 8., 1., 5.,
          0., 3., 14., 6., 6., 0., 11., 18., 8., 5., 1., 10., 2., 1., 2.,
          2., 7., 4., 7., 7. ]
      - [ 28., 27., 17., 10., 54., 42., 56., 15., 41., 12., 11., 32.,
          50., 21., 14., 18., 35., 111., 10., 32., 13., 10., 24., 17.,
          9., 20., 51., 10., 32., 6., 39., 24., 17., 28., 11., 12., 70.,
          33., 22., 26., 36., 23., 26., 14., 9., 31., 13., 31., 57., 7. ]
      - [ 14., 19., 9., 14., 7., 16., 12., 11., 14., 8., 11., 16., 14.,
          13., 12., 17., 9., 12., 26., 7., 29., 18., 8., 11., 18., 19.,
          11., 29., 15., 14., 16., 17., 17., 30., 13., 9., 11., 17., 14.,
          20., 8., 5., 5., 16., 20., 18., 22., 17., 22., 23. ]
      - [ 28., 16., 8., 52., 8., 32., 31., 7., 21., 27., 20., 11., 10.,
          22., 15., 48., 13., 3., 2., 10., 24., 23., 9., 5., 15., 16.,
          6., 2., 18., 9., 0., 16., 16., 9., 3., 11., 8., 10., 3., 17.,
          8., 19., 40., 6., 16., 5., 6., 23., 29., 4. ]
      - [ 25., 36., 58., 26., 50., 37., 34., 10., 41., 10., 38., 58.,
          39., 61., 52., 24., 32., 41., 43., 32., 105., 45., 88., 69.,
          56., 14., 85., 29., 38., 36., 35., 31., 32., 42., 29., 16.,
          31., 33., 25., 53., 61., 78., 20., 36., 40., 59., 21., 58.,
          43., 51. ]
      - [ 3., 0., 3., 3., 3., 1., 1., 1., 2., 1., 3., 2., 3., 3., 1., 0.,
          2., 2., 0., 0., 2., 1., 1., 3., 1., 2., 4., 2., 1., 1., 0., 3.,
          3., 1., 0., 1., 2., 1., 4., 4., 1., 3., 1., 1., 0., 3., 3., 1.,
          1., 0. ]
      - [ 20., 28., 3., 15., 8., 13., 5., 13., 9., 14., 14., 23., 15.,
          8., 13., 19., 9., 0., 13., 9., 26., 12., 5., 7., 27., 16., 11.,
          31., 16., 23., 4., 13., 23., 11., 10., 18., 1., 7., 15., 10.,
          10., 17., 14., 10., 25., 7., 17., 9., 4., 23. ]
      - [ 33., 43., 30., 8., 36., 54., 42., 16., 19., 7., 6., 21., 26.,
          17., 7., 24., 16., 53., 7., 33., 8., 27., 9., 13., 6., 22.,
          65., 6., 20., 2., 35., 11., 2., 16., 2., 7., 37., 10., 23.,
          20., 29., 37., 35., 16., 22., 30., 3., 35., 25., 10. ]
      - [ 38., 39., 39., 38., 31., 44., 40., 34., 34., 37., 45., 40.,
          44., 43., 24., 34., 43., 40., 33., 49., 124., 34., 54., 63.,
          43., 35., 30., 42., 37., 44., 58., 38., 34., 48., 16., 57.,
          25., 41., 18., 44., 56., 69., 40., 40., 44., 36., 48., 40.,
          57., 56. ]
      - [ 26., 38., 40., 36., 42., 22., 73., 48., 22., 19., 32., 51.,
          23., 35., 21., 34., 59., 23., 20., 41., 21., 53., 54., 62.,
          49., 12., 55., 30., 17., 33., 38., 17., 42., 33., 13., 17.,
          22., 29., 18., 60., 56., 69., 14., 37., 43., 34., 13., 59.,
          25., 25. ]
      - [ 41., 53., 9., 27., 8., 43., 13., 5., 27., 17., 18., 7., 3.,
          28., 12., 39., 19., 7., 5., 18., 28., 20., 3., 9., 127., 5.,
          9., 7., 38., 4., 2., 5., 18., 7., 3., 115., 12., 10., 9., 10.,
          4., 17., 20., 29., 51., 28., 6., 13., 21., 8. ]
      - [ 49., 21., 43., 31., 38., 21., 49., 42., 30., 24., 20., 58.,
          36., 34., 21., 27., 39., 26., 38., 48., 102., 32., 70., 61.,
          29., 15., 29., 22., 19., 30., 52., 24., 18., 48., 25., 41.,
          19., 32., 14., 38., 66., 105., 14., 43., 48., 35., 24., 45.,
          36., 52. ]
      - [ 10., 0., 3., 6., 22., 2., 4., 19., 2., 2., 10., 22., 13., 3.,
          5., 4., 8., 27., 6., 15., 0., 5., 2., 14., 4., 8., 18., 24.,
          2., 13., 0., 4., 8., 12., 7., 0., 17., 10., 9., 10., 0., 9.,
          1., 1., 2., 5., 16., 1., 2., 11. ]
      - [ 5., 6., 1., 23., 1., 5., 6., 14., 6., 14., 15., 12., 4., 8.,
          17., 14., 3., 3., 26., 0., 29., 25., 22., 13., 25., 8., 9.,
          15., 9., 48., 0., 7., 25., 6., 11., 12., 4., 9., 9., 8., 9.,
          20., 5., 14., 13., 5., 22., 6., 8., 21. ]
      - [ 9., 81., 4., 25., 10., 22., 11., 18., 67., 23., 67., 68., 9.,
          46., 18., 32., 15., 12., 26., 23., 32., 89., 5., 18., 41., 18.,
          23., 79., 83., 45., 19., 57., 38., 36., 9., 44., 6., 20., 49.,
          22., 31., 67., 9., 5., 20., 36., 62., 19., 27., 44. ]
      - [ 5., 64., 6., 17., 10., 3., 5., 11., 7., 5., 44., 5., 7., 1.,
          5., 9., 5., 16., 9., 12., 15., 82., 16., 7., 55., 6., 6., 11.,
          16., 45., 7., 6., 14., 2., 6., 10., 10., 9., 35., 13., 5., 34.,
          7., 2., 13., 15., 5., 1., 7., 8. ]
      - [ 1., 35., 7., 9., 5., 2., 5., 2., 16., 8., 17., 2., 4., 5., 8.,
          3., 3., 7., 6., 0., 8., 5., 17., 4., 12., 3., 3., 3., 7., 5.,
          3., 3., 9., 6., 8., 2., 5., 16., 40., 12., 6., 10., 2., 4., 7.,
          12., 5., 16., 6., 13. ]
      - [ 9., 43., 5., 17., 13., 9., 9., 9., 11., 5., 7., 8., 8., 6.,
          14., 9., 8., 37., 13., 3., 19., 5., 17., 7., 15., 14., 2., 17.,
          12., 9., 13., 7., 20., 4., 7., 3., 58., 8., 45., 15., 7., 5.,
          13., 3., 10., 15., 6., 21., 10., 8. ]
      - [ 71., 81., 175., 131., 156., 79., 197., 64., 72., 60., 99.,
          105., 85., 112., 60., 45., 160., 72., 66., 154., 233., 122.,
          211., 191., 93., 31., 92., 45., 59., 146., 56., 63., 92., 89.,
          32., 70., 42., 91., 42., 117., 202., 306., 45., 81., 137., 85.,
          32., 99., 99., 70. ]
      - [ 6., 4., 4., 9., 0., 1., 0., 9., 2., 6., 0., 2., 8., 5., 6., 7.,
          0., 8., 13., 1., 1., 3., 0., 0., 2., 12., 3., 15., 7., 4., 20.,
          7., 4., 7., 3., 11., 3., 8., 5., 2., 3., 0., 1., 3., 6., 4.,
          9., 2., 8., 12. ]
      - [ 4., 19., 8., 3., 10., 7., 8., 11., 10., 7., 6., 4., 1., 9., 8.,
          5., 6., 24., 6., 7., 13., 2., 15., 6., 20., 6., 2., 4., 6.,
          12., 2., 6., 9., 7., 10., 10., 18., 10., 11., 9., 5., 7., 6.,
          7., 4., 6., 5., 20., 6., 10. ]
      - [ 37., 29., 5., 35., 10., 31., 12., 3., 13., 12., 22., 14., 3.,
          19., 12., 41., 22., 8., 8., 6., 18., 12., 5., 15., 82., 3., 6.,
          4., 20., 14., 3., 8., 17., 7., 1., 80., 9., 8., 8., 10., 13.,
          14., 20., 12., 26., 22., 10., 24., 18., 2. ]
      - [ 11., 92., 6., 25., 9., 5., 8., 27., 6., 11., 31., 10., 27., 7.,
          14., 22., 15., 20., 23., 56., 32., 22., 31., 16., 51., 13.,
          14., 28., 8., 90., 14., 9., 32., 7., 18., 14., 25., 8., 80.,
          12., 14., 27., 13., 22., 12., 6., 32., 23., 12., 25. ]
      - [ 29., 52., 27., 15., 55., 22., 37., 36., 28., 21., 33., 23.,
          22., 37., 30., 20., 32., 77., 14., 24., 20., 45., 23., 23.,
          39., 28., 23., 11., 13., 12., 38., 19., 12., 25., 10., 16.,
          46., 27., 32., 34., 23., 33., 20., 28., 12., 30., 15., 35.,
          40., 17. ]
      - [ 2., 1., 0., 21., 1., 1., 2., 6., 0., 20., 7., 13., 8., 3., 2.,
          35., 1., 1., 11., 0., 31., 100., 0., 22., 24., 8., 3., 26., 4.,
          45., 0., 8., 28., 5., 1., 8., 1., 2., 4., 0., 5., 9., 0., 7.,
          29., 2., 11., 0., 4., 7. ]
      - [ 29., 49., 66., 41., 39., 19., 65., 36., 23., 22., 34., 65.,
          20., 45., 37., 26., 33., 32., 21., 46., 26., 64., 50., 59.,
          54., 14., 45., 24., 17., 30., 38., 18., 54., 33., 7., 31., 23.,
          38., 19., 57., 51., 46., 35., 41., 56., 57., 26., 44., 32.,
          22. ]
      - [ 6., 33., 1., 9., 7., 4., 7., 8., 12., 5., 12., 22., 14., 4.,
          16., 11., 13., 7., 9., 4., 12., 23., 3., 7., 6., 8., 16., 15.,
          16., 4., 0., 21., 12., 5., 4., 6., 5., 8., 10., 3., 9., 18.,
          10., 8., 12., 5., 16., 6., 7., 9. ]
      - [ 11., 27., 9., 11., 25., 7., 27., 16., 16., 7., 8., 4., 3., 12.,
          23., 9., 13., 17., 18., 12., 14., 6., 22., 7., 12., 11., 16.,
          8., 12., 9., 6., 15., 9., 12., 9., 10., 22., 16., 22., 14., 9.,
          8., 16., 13., 6., 17., 10., 13., 9., 14. ]
      - [ 26., 33., 10., 21., 30., 26., 26., 21., 10., 14., 29., 18.,
          23., 28., 15., 29., 28., 38., 18., 22., 47., 20., 20., 22.,
          21., 48., 25., 42., 13., 27., 19., 13., 20., 35., 30., 21.,
          32., 22., 46., 24., 29., 54., 25., 23., 12., 24., 29., 30.,
          35., 11. ]
      - [ 6., 27., 4., 8., 11., 7., 6., 6., 9., 12., 6., 18., 8., 10.,
          5., 31., 11., 16., 10., 5., 11., 3., 9., 8., 18., 11., 3., 41.,
          15., 12., 7., 16., 13., 7., 8., 6., 4., 5., 21., 11., 7., 6.,
          4., 7., 35., 10., 6., 11., 9., 8. ]
      - [ 27., 18., 21., 21., 24., 30., 160., 79., 5., 12., 16., 41.,
          22., 25., 12., 20., 151., 18., 14., 45., 44., 22., 24., 70.,
          43., 11., 24., 38., 7., 18., 66., 12., 27., 7., 10., 44., 7.,
          31., 16., 23., 32., 57., 16., 16., 31., 22., 17., 23., 9., 42. ]
      - [ 89., 23., 6., 43., 10., 20., 12., 5., 9., 16., 13., 29., 8.,
          21., 12., 43., 14., 14., 5., 13., 12., 16., 4., 16., 79., 4.,
          11., 3., 18., 17., 0., 5., 13., 8., 4., 50., 16., 6., 9., 11.,
          11., 16., 32., 11., 30., 23., 17., 11., 21., 9. ]
      - [ 100., 8., 9., 85., 17., 7., 6., 24., 9., 9., 24., 27., 13., 5.,
          14., 34., 14., 26., 1., 15., 8., 6., 7., 16., 8., 7., 16., 8.,
          1., 11., 0., 9., 21., 19., 5., 3., 30., 30., 18., 10., 4., 18.,
          12., 4., 6., 5., 14., 3., 15., 8. ]
      - [ 11., 4., 1., 6., 2., 9., 3., 15., 3., 3., 1., 9., 7., 2., 3.,
          1., 0., 7., 4., 4., 8., 2., 2., 1., 4., 6., 3., 7., 4., 1., 5.,
          5., 2., 7., 4., 10., 4., 7., 5., 3., 2., 2., 0., 7., 7., 1.,
          10., 8., 13., 21. ]
      - [ 4., 5., 0., 7., 6., 6., 8., 15., 4., 2., 0., 3., 3., 6., 3.,
          8., 3., 2., 2., 1., 1., 0., 1., 2., 4., 3., 0., 7., 2., 4., 3.,
          9., 7., 5., 1., 8., 1., 6., 0., 5., 1., 0., 0., 1., 9., 1., 3.,
          3., 7., 9. ]
      - [ 18., 5., 8., 11., 6., 11., 17., 14., 5., 7., 0., 17., 16., 6.,
          10., 20., 1., 12., 13., 9., 11., 2., 7., 12., 9., 11., 7., 13.,
          7., 2., 37., 4., 13., 13., 6., 9., 11., 9., 9., 14., 4., 9.,
          1., 15., 13., 13., 9., 12., 8., 28. ]
      - [ 8., 1., 3., 1., 7., 6., 2., 5., 3., 4., 4., 4., 2., 2., 1.,
          15., 4., 12., 2., 4., 3., 1., 0., 9., 1., 2., 7., 7., 3., 1.,
          0., 2., 4., 1., 5., 1., 1., 7., 4., 2., 0., 7., 2., 5., 1., 1.,
          4., 2., 7., 1. ]
      - [ 39., 10., 16., 49., 25., 15., 14., 18., 8., 12., 13., 52., 9.,
          9., 14., 32., 44., 47., 10., 15., 11., 17., 5., 20., 7., 6.,
          9., 24., 9., 7., 0., 17., 18., 16., 9., 11., 17., 34., 19.,
          13., 2., 21., 11., 10., 7., 16., 17., 11., 27., 10. ]
      - [ 26., 16., 7., 32., 22., 17., 18., 20., 17., 13., 6., 22., 15.,
          15., 17., 14., 14., 15., 19., 13., 16., 21., 11., 22., 7., 7.,
          14., 9., 13., 8., 1., 19., 11., 15., 15., 22., 4., 25., 18.,
          16., 3., 18., 24., 12., 15., 11., 12., 5., 12., 10. ]
      - [ 22., 33., 26., 33., 30., 46., 26., 19., 35., 27., 46., 22.,
          35., 25., 33., 25., 19., 39., 25., 48., 53., 29., 42., 35.,
          25., 39., 25., 35., 26., 27., 31., 25., 32., 30., 32., 39.,
          25., 45., 24., 33., 48., 29., 44., 41., 31., 33., 68., 22.,
          26., 38. ]
      - [ 15., 12., 5., 10., 3., 14., 6., 30., 15., 4., 6., 16., 18., 6.,
          5., 20., 6., 11., 13., 5., 15., 7., 5., 7., 5., 6., 21., 16.,
          10., 4., 35., 7., 7., 8., 21., 22., 12., 8., 9., 16., 9., 9.,
          5., 21., 18., 11., 8., 12., 8., 44. ]
      - [ 10., 20., 24., 27., 11., 23., 62., 22., 8., 20., 10., 27., 19.,
          14., 15., 18., 40., 17., 19., 22., 41., 22., 39., 34., 27.,
          17., 14., 21., 16., 12., 35., 19., 19., 19., 11., 32., 8., 35.,
          20., 32., 40., 37., 11., 25., 34., 21., 19., 24., 17., 18. ]
      - [ 64., 53., 33., 82., 54., 56., 82., 89., 73., 45., 52., 69.,
          69., 72., 81., 80., 110., 57., 18., 72., 77., 64., 58., 71.,
          26., 39., 78., 58., 53., 57., 0., 83., 67., 66., 26., 29., 65.,
          52., 36., 73., 22., 82., 86., 42., 51., 39., 47., 43., 64.,
          34. ]
      - [ 16., 32., 6., 27., 11., 15., 12., 10., 9., 14., 16., 16., 21.,
          14., 10., 26., 19., 6., 22., 4., 35., 16., 10., 16., 36., 23.,
          18., 20., 7., 31., 6., 13., 27., 10., 6., 15., 3., 9., 24.,
          17., 10., 13., 13., 19., 16., 12., 9., 14., 12., 20. ]
      - [ 9., 1., 3., 13., 8., 1., 0., 0., 0., 1., 4., 10., 2., 3., 0.,
          3., 3., 15., 1., 1., 2., 1., 0., 6., 0., 2., 7., 3., 2., 2.,
          0., 1., 3., 4., 1., 0., 5., 2., 4., 3., 3., 4., 1., 1., 2., 5.,
          8., 1., 6., 2. ]
      - [ 29., 13., 18., 6., 19., 21., 18., 19., 11., 15., 14., 13., 25.,
          17., 15., 26., 19., 21., 25., 15., 28., 29., 24., 23., 26.,
          17., 23., 27., 11., 18., 33., 13., 9., 30., 30., 12., 7., 14.,
          7., 39., 29., 21., 6., 22., 24., 20., 18., 28., 37., 39. ]
      - [ 13., 9., 9., 13., 6., 19., 12., 23., 5., 12., 5., 15., 9., 6.,
          6., 14., 6., 15., 17., 11., 26., 7., 22., 11., 6., 9., 7., 13.,
          13., 4., 26., 10., 11., 16., 12., 21., 8., 13., 7., 19., 5.,
          14., 0., 13., 13., 10., 5., 19., 12., 40. ]
      - [ 15., 33., 34., 14., 38., 24., 19., 22., 24., 16., 97., 30.,
          24., 40., 19., 25., 33., 23., 16., 28., 28., 31., 37., 34.,
          50., 17., 44., 19., 19., 29., 19., 24., 31., 22., 17., 23.,
          12., 30., 23., 24., 40., 31., 100., 13., 37., 46., 15., 25.,
          16., 18. ]
      - [ 17., 3., 3., 11., 13., 3., 5., 3., 2., 6., 12., 20., 4., 3.,
          1., 6., 7., 10., 4., 3., 3., 4., 0., 8., 3., 0., 7., 8., 4.,
          7., 0., 4., 7., 0., 2., 3., 7., 6., 7., 7., 1., 7., 1., 2., 2.,
          4., 7., 4., 6., 3. ]
      - [ 8., 55., 10., 25., 18., 16., 21., 27., 30., 24., 27., 22., 12.,
          23., 23., 13., 19., 28., 21., 4., 48., 19., 34., 13., 40., 12.,
          14., 21., 30., 53., 14., 12., 19., 19., 18., 18., 27., 29.,
          39., 32., 26., 17., 15., 24., 5., 18., 28., 31., 23., 18. ]
      - [ 31., 48., 113., 84., 79., 58., 88., 83., 39., 28., 27., 118.,
          38., 46., 26., 17., 61., 27., 17., 60., 52., 54., 63., 55.,
          105., 41., 22., 28., 26., 99., 57., 49., 60., 67., 6., 81.,
          17., 79., 26., 47., 69., 69., 21., 35., 115., 63., 43., 35.,
          56., 41. ]
      - [ 23., 12., 18., 23., 39., 12., 22., 40., 19., 17., 13., 34.,
          26., 12., 15., 16., 17., 54., 11., 20., 18., 10., 23., 49., 7.,
          17., 25., 27., 16., 14., 0., 18., 19., 49., 16., 6., 23., 18.,
          13., 23., 6., 37., 2., 15., 12., 12., 22., 20., 22., 15. ]
      - [ 17., 8., 3., 5., 17., 8., 16., 1., 17., 4., 1., 8., 9., 4., 1.,
          5., 12., 19., 1., 11., 7., 2., 4., 4., 5., 6., 17., 6., 7., 2.,
          6., 7., 2., 3., 3., 3., 36., 15., 13., 12., 8., 9., 5., 3., 5.,
          9., 3., 5., 19., 7. ]
      - [ 10., 5., 3., 10., 5., 5., 15., 16., 8., 10., 1., 13., 8., 3.,
          4., 16., 8., 9., 11., 3., 6., 5., 5., 10., 12., 10., 14., 21.,
          10., 1., 45., 6., 9., 10., 12., 21., 11., 12., 10., 12., 6.,
          16., 0., 11., 13., 4., 7., 9., 15., 41. ]
      - [ 10., 60., 4., 12., 7., 2., 7., 10., 15., 9., 22., 5., 4., 9.,
          31., 4., 6., 16., 8., 3., 23., 7., 19., 6., 19., 10., 4., 17.,
          10., 23., 4., 11., 21., 4., 7., 10., 10., 16., 88., 19., 7.,
          22., 5., 18., 5., 13., 11., 23., 6., 25. ]
      - [ 22., 36., 59., 64., 50., 36., 43., 90., 25., 24., 24., 71.,
          31., 43., 15., 12., 34., 19., 16., 35., 16., 49., 33., 45.,
          104., 34., 25., 25., 29., 57., 45., 36., 35., 52., 4., 64.,
          24., 66., 12., 25., 44., 42., 20., 33., 79., 51., 64., 24.,
          39., 43. ]
      - [ 27., 51., 13., 11., 38., 10., 30., 21., 24., 19., 17., 28.,
          29., 13., 17., 24., 22., 22., 9., 23., 17., 22., 20., 10., 13.,
          19., 24., 35., 16., 22., 12., 13., 22., 13., 7., 13., 29., 16.,
          45., 12., 20., 29., 14., 16., 24., 26., 12., 17., 22., 15. ]
      - [ 64., 3., 23., 36., 190., 1., 16., 141., 19., 36., 7., 72., 50.,
          51., 17., 11., 9., 71., 86., 22., 21., 17., 37., 190., 8., 80.,
          25., 53., 8., 48., 15., 38., 15., 101., 195., 6., 29., 32.,
          65., 23., 48., 17., 3., 38., 16., 53., 61., 31., 14., 129. ]
      - [ 30., 34., 8., 25., 11., 25., 14., 2., 13., 16., 19., 8., 5.,
          18., 9., 35., 15., 5., 8., 10., 19., 16., 6., 18., 151., 5.,
          11., 7., 39., 5., 4., 5., 14., 5., 4., 55., 6., 16., 7., 17.,
          12., 21., 29., 20., 29., 30., 7., 13., 18., 7. ]
      - [ 5., 3., 1., 23., 2., 3., 1., 5., 7., 15., 10., 12., 3., 11.,
          19., 12., 1., 1., 23., 1., 27., 14., 8., 9., 28., 11., 6., 13.,
          9., 39., 0., 14., 20., 4., 4., 11., 2., 7., 6., 9., 7., 12.,
          3., 8., 9., 6., 16., 5., 5., 14. ]
      - [ 78., 26., 14., 45., 30., 14., 13., 33., 22., 19., 14., 57.,
          20., 10., 25., 17., 42., 54., 23., 26., 15., 17., 9., 29., 37.,
          13., 25., 27., 22., 15., 1., 29., 8., 18., 8., 14., 31., 37.,
          33., 20., 14., 35., 44., 23., 15., 29., 30., 6., 19., 15. ]
      - [ 56., 35., 5., 37., 12., 47., 16., 18., 89., 17., 24., 7., 13.,
          34., 13., 51., 23., 11., 12., 17., 27., 24., 11., 15., 204.,
          17., 16., 14., 59., 11., 2139., 13., 32., 16., 22., 124., 4.,
          22., 24., 21., 11., 18., 41., 46., 64., 43., 9., 20., 27., 24. ]
   decision_functions:
      -
         sv_count: 1
         rho: -1.1478772043071457e-01
         alpha: [ 1. ]
         index: [ 0 ]
      -
         sv_count: 1
         rho: 2.5544361634516677e-01
         alpha: [ 1. ]
         index: [ 1 ]
      -
         sv_count: 1
         rho: 8.9353589157513680e-02
         alpha: [ 1. ]
         index: [ 2 ]
